little -0.2628 -0.18769 -0.29701 -0.15466 -0.075577 0.10958 -0.16459 -0.055038 0.25036 -0.16692 0.10944 0.32569 0.025477 -0.16007 0.35177 0.22696 -0.074457 0.00713 -0.48875 -0.15144 -0.040353 -0.15486 -0.035286 -0.036037 -0.30131 0.13162 -0.096617 0.074259 0.061854 -0.14704 -0.015496 -0.30256 -0.26154 0.011704 -0.032606 -0.09674 -0.16786 -0.20295 0.04194 -0.022384 -0.37052 0.049508 0.16958 0.28339 0.054415 -0.5854 0.16542 0.57585 -0.11111 -0.13355
small -0.11232 -0.18729 -0.2133 -0.23873 0.228 0.19416 -0.19896 -0.11898 0.54745 -0.15591 -0.26422 0.41877 0.080476 0.07464 0.32155 0.031893 -0.16524 -0.2283 -0.60738 0.0023227 -0.13175 -0.15806 0.053927 -0.12042 -0.32132 0.22738 -0.0087922 -0.15624 0.016325 -0.11679 -0.15087 -0.31227 -0.25039 0.16678 -0.12839 0.01688 -0.41744 -0.0017519 -0.0098758 -0.035296 -0.4658 0.17499 0.11052 0.61513 0.14602 -0.80004 0.10254 0.57414 -0.10501 -0.25082
beautiful -0.119 -0.083119 -0.40632 0.010124 -0.10147 -0.19214 -0.052714 0.083559 0.076168 -0.29594 0.12652 0.6967 0.12956 0.23679 0.26953 0.17524 -0.21219 0.18387 -0.12983 0.040544 -0.01744 -0.081663 0.085656 -0.29021 -0.39506 -0.099991 -0.044749 0.092471 0.23833 -0.11148 0.26666 -0.12635 -0.13549 -0.057436 -0.45346 -0.023003 -0.16623 -0.19565 0.10817 0.015181 -0.46949 -0.21823 0.13547 0.14748 -0.0055636 -0.65854 0.10393 0.78207 -0.0022607 0.040667
ugly -0.11993 -0.083119 -0.40632 0.010124 -0.10147 -0.19214 -0.052714 0.083559 0.076168 -0.29594 0.12652 0.6967 0.12956 0.23679 0.26953 0.17524 -0.21219 0.18387 -0.12983 0.040544 -0.01744 -0.081663 0.085656 -0.29021 -0.39506 -0.099991 -0.044749 0.092471 0.23833 -0.11148 0.26666 -0.12635 -0.13549 -0.057436 -0.45346 -0.023003 -0.16623 -0.19565 0.10817 0.015181 -0.46949 -0.21823 0.13547 0.14748 -0.0055636 -0.65854 0.10393 0.78207 -0.0022607 0.040667
